FANN_FLO_2.1
num_layers=5
learning_rate=0.700000
connection_rate=1.000000
network_type=0
learning_momentum=0.000000
training_algorithm=2
train_error_function=1
train_stop_function=0
cascade_output_change_fraction=0.010000
quickprop_decay=-0.000100
quickprop_mu=1.750000
rprop_increase_factor=1.200000
rprop_decrease_factor=0.500000
rprop_delta_min=0.000000
rprop_delta_max=50.000000
rprop_delta_zero=0.100000
cascade_output_stagnation_epochs=12
cascade_candidate_change_fraction=0.010000
cascade_candidate_stagnation_epochs=12
cascade_max_out_epochs=150
cascade_min_out_epochs=50
cascade_max_cand_epochs=150
cascade_min_cand_epochs=50
cascade_num_candidate_groups=2
bit_fail_limit=3.49999994039535522461e-01
cascade_candidate_limit=1.00000000000000000000e+03
cascade_weight_multiplier=4.00000005960464477539e-01
cascade_activation_functions_count=10
cascade_activation_functions=3 5 7 8 10 11 14 15 16 17 
cascade_activation_steepnesses_count=4
cascade_activation_steepnesses=2.50000000000000000000e-01 5.00000000000000000000e-01 7.50000000000000000000e-01 1.00000000000000000000e+00 
layer_sizes=2 26 26 26 2 
scale_included=0
neurons (num_inputs, activation_function, activation_steepness)=(0, 0, 0.00000000000000000000e+00) (0, 0, 0.00000000000000000000e+00) (2, 5, 5.00000000000000000000e-01) (2, 5, 5.00000000000000000000e-01) (2, 5, 5.00000000000000000000e-01) (2, 5, 5.00000000000000000000e-01) (2, 5, 5.00000000000000000000e-01) (2, 5, 5.00000000000000000000e-01) (2, 5, 5.00000000000000000000e-01) (2, 5, 5.00000000000000000000e-01) (2, 5, 5.00000000000000000000e-01) (2, 5, 5.00000000000000000000e-01) (2, 5, 5.00000000000000000000e-01) (2, 5, 5.00000000000000000000e-01) (2, 5, 5.00000000000000000000e-01) (2, 5, 5.00000000000000000000e-01) (2, 5, 5.00000000000000000000e-01) (2, 5, 5.00000000000000000000e-01) (2, 5, 5.00000000000000000000e-01) (2, 5, 5.00000000000000000000e-01) (2, 5, 5.00000000000000000000e-01) (2, 5, 5.00000000000000000000e-01) (2, 5, 5.00000000000000000000e-01) (2, 5, 5.00000000000000000000e-01) (2, 5, 5.00000000000000000000e-01) (2, 5, 5.00000000000000000000e-01) (2, 5, 5.00000000000000000000e-01) (0, 5, 0.00000000000000000000e+00) (26, 5, 5.00000000000000000000e-01) (26, 5, 5.00000000000000000000e-01) (26, 5, 5.00000000000000000000e-01) (26, 5, 5.00000000000000000000e-01) (26, 5, 5.00000000000000000000e-01) (26, 5, 5.00000000000000000000e-01) (26, 5, 5.00000000000000000000e-01) (26, 5, 5.00000000000000000000e-01) (26, 5, 5.00000000000000000000e-01) (26, 5, 5.00000000000000000000e-01) (26, 5, 5.00000000000000000000e-01) (26, 5, 5.00000000000000000000e-01) (26, 5, 5.00000000000000000000e-01) (26, 5, 5.00000000000000000000e-01) (26, 5, 5.00000000000000000000e-01) (26, 5, 5.00000000000000000000e-01) (26, 5, 5.00000000000000000000e-01) (26, 5, 5.00000000000000000000e-01) (26, 5, 5.00000000000000000000e-01) (26, 5, 5.00000000000000000000e-01) (26, 5, 5.00000000000000000000e-01) (26, 5, 5.00000000000000000000e-01) (26, 5, 5.00000000000000000000e-01) (26, 5, 5.00000000000000000000e-01) (26, 5, 5.00000000000000000000e-01) (0, 5, 0.00000000000000000000e+00) (26, 5, 5.00000000000000000000e-01) (26, 5, 5.00000000000000000000e-01) (26, 5, 5.00000000000000000000e-01) (26, 5, 5.00000000000000000000e-01) (26, 5, 5.00000000000000000000e-01) (26, 5, 5.00000000000000000000e-01) (26, 5, 5.00000000000000000000e-01) (26, 5, 5.00000000000000000000e-01) (26, 5, 5.00000000000000000000e-01) (26, 5, 5.00000000000000000000e-01) (26, 5, 5.00000000000000000000e-01) (26, 5, 5.00000000000000000000e-01) (26, 5, 5.00000000000000000000e-01) (26, 5, 5.00000000000000000000e-01) (26, 5, 5.00000000000000000000e-01) (26, 5, 5.00000000000000000000e-01) (26, 5, 5.00000000000000000000e-01) (26, 5, 5.00000000000000000000e-01) (26, 5, 5.00000000000000000000e-01) (26, 5, 5.00000000000000000000e-01) (26, 5, 5.00000000000000000000e-01) (26, 5, 5.00000000000000000000e-01) (26, 5, 5.00000000000000000000e-01) (26, 5, 5.00000000000000000000e-01) (26, 5, 5.00000000000000000000e-01) (0, 5, 0.00000000000000000000e+00) (26, 5, 5.00000000000000000000e-01) (0, 5, 0.00000000000000000000e+00) 
connections (connected_to_neuron, weight)=(0, 4.89443302154541015625e+00) (1, -9.98908817768096923828e-01) (0, 2.68542766571044921875e-01) (1, 3.98884475231170654297e-01) (0, 1.59352202899754047394e-03) (1, 4.00128513574600219727e-01) (0, 3.55456858873367309570e-01) (1, 3.69267880916595458984e-01) (0, 7.16335356235504150391e-01) (1, 4.94643300771713256836e-01) (0, 5.86200356483459472656e-01) (1, -2.48375609517097473145e-01) (0, 6.92709207534790039062e-01) (1, -1.57871529459953308105e-01) (0, 6.87077820301055908203e-01) (1, 4.04795467853546142578e-01) (0, 4.40187931060791015625e-01) (1, 6.98015868663787841797e-01) (0, 6.49737358093261718750e-01) (1, -1.29365205764770507812e-01) (0, 7.51667439937591552734e-01) (1, 3.07745665311813354492e-01) (0, -1.96992157725617289543e-04) (1, -8.89922305941581726074e-02) (0, 5.65110981464385986328e-01) (1, 6.97121679782867431641e-01) (0, 3.59679967164993286133e-01) (1, 5.32342970371246337891e-01) (0, 7.18519628047943115234e-01) (1, 1.89237043261528015137e-01) (0, 7.80162870883941650391e-01) (1, 4.93563413619995117188e-01) (0, -3.62942814826965332031e-01) (1, 3.76751810312271118164e-01) (0, 6.78220391273498535156e-01) (1, -5.46046681702136993408e-02) (0, 6.87332868576049804688e-01) (1, -5.85064012557268142700e-03) (0, 3.19188386201858520508e-01) (1, 2.48299211263656616211e-01) (0, -5.46864032745361328125e-01) (1, 4.24692004919052124023e-01) (0, 8.62257719039916992188e-01) (1, 3.75536829233169555664e-01) (0, 6.87928915023803710938e-01) (1, 5.71275353431701660156e-01) (0, 7.66885340213775634766e-01) (1, 5.80512166023254394531e-01) (0, 7.48423814773559570312e-01) (1, 4.89720404148101806641e-01) (2, 1.13290491104125976562e+01) (3, 3.21236014366149902344e+00) (4, 4.95838212966918945312e+00) (5, 3.11656427383422851562e+00) (6, 5.26164102554321289062e+00) (7, -4.04506444931030273438e+00) (8, -5.15332794189453125000e+00) (9, 3.65342783927917480469e+00) (10, 5.30708122253417968750e+00) (11, -5.17253208160400390625e+00) (12, 3.59095263481140136719e+00) (13, -6.57389926910400390625e+00) (14, 5.32393741607666015625e+00) (15, 5.32678747177124023438e+00) (16, 3.65177273750305175781e+00) (17, 3.54468011856079101562e+00) (18, 3.70440864562988281250e+01) (19, -1.83513700962066650391e+00) (20, -1.91076970100402832031e+00) (21, 9.11593151092529296875e+00) (22, 5.35293769836425781250e+00) (23, 3.62122607231140136719e+00) (24, 9.01632404327392578125e+00) (25, 3.64974713325500488281e+00) (26, 3.71234321594238281250e+00) (27, 2.45399093627929687500e+00) (2, 1.31707549095153808594e-01) (3, 6.13581109791994094849e-03) (4, -2.28317469358444213867e-01) (5, -2.94449795037508010864e-02) (6, 7.49345794320106506348e-02) (7, -6.75208759307861328125e+00) (8, -2.08211794495582580566e-01) (9, 5.95216810703277587891e-01) (10, -1.72214247286319732666e-02) (11, -8.57901573181152343750e-02) (12, 7.01657891273498535156e-01) (13, 3.70219230651855468750e-01) (14, 2.23033577203750610352e-02) (15, -1.47417550906538963318e-02) (16, 7.49347090721130371094e-01) (17, 7.02872216701507568359e-01) (18, 1.31644159555435180664e-01) (19, -1.79088965058326721191e-01) (20, -5.57758867740631103516e-01) (21, -5.04255807027220726013e-03) (22, 1.37357085943222045898e-01) (23, 6.77740693092346191406e-01) (24, -5.54476752877235412598e-02) (25, 7.56215810775756835938e-01) (26, 6.36097013950347900391e-01) (27, 6.92586123943328857422e-01) (2, 3.43609952926635742188e+00) (3, 5.24097108840942382812e+00) (4, 4.27900934219360351562e+00) (5, 1.24495086669921875000e+01) (6, 8.30429840087890625000e+00) (7, -2.03460359573364257812e+00) (8, -2.85125851631164550781e+00) (9, 3.01743125915527343750e+00) (10, 9.21809577941894531250e+00) (11, -2.87186169624328613281e+00) (12, 3.93893456459045410156e+00) (13, -4.59052467346191406250e+00) (14, 8.14546680450439453125e+00) (15, 1.08128700256347656250e+01) (16, 1.67961311340332031250e+01) (17, 7.49918365478515625000e+00) (18, 9.87766551971435546875e+00) (19, -1.79635608196258544922e+00) (20, -1.82811689376831054688e+00) (21, 8.48297214508056640625e+00) (22, 3.25031328201293945312e+00) (23, 2.53466415405273437500e+00) (24, 1.89445743560791015625e+01) (25, 4.45564079284667968750e+01) (26, 8.39784908294677734375e+00) (27, 3.52362465858459472656e+00) (2, -2.02217884361743927002e-02) (3, 3.41837410815060138702e-03) (4, -3.76517683267593383789e-01) (5, -1.84174463152885437012e-01) (6, -1.33371174335479736328e-01) (7, 2.00524926185607910156e+00) (8, 4.05507594347000122070e-01) (9, 2.03816458582878112793e-01) (10, -2.00116828083992004395e-01) (11, 3.06513071060180664062e-01) (12, 2.74045586585998535156e-01) (13, 9.17441070079803466797e-01) (14, -2.04958945512771606445e-01) (15, -1.66482090950012207031e-01) (16, 1.59496501088142395020e-01) (17, 2.86223530769348144531e-01) (18, -3.05569976568222045898e-01) (19, 2.57621675729751586914e-01) (20, 7.71657377481460571289e-02) (21, -1.89959302544593811035e-01) (22, -2.58940190076828002930e-01) (23, 3.20366024971008300781e-01) (24, -2.16681897640228271484e-01) (25, 1.81924894452095031738e-01) (26, 2.43078216910362243652e-01) (27, 8.38538110256195068359e-02) (2, 1.28177359700202941895e-01) (3, 3.38018126785755157471e-02) (4, -3.61472398042678833008e-01) (5, -4.80499072000384330750e-03) (6, 1.02501608431339263916e-01) (7, -6.55123996734619140625e+00) (8, -1.40941143035888671875e-01) (9, 7.14108824729919433594e-01) (10, 8.22287052869796752930e-02) (11, -1.35121107101440429688e-01) (12, 5.83800137042999267578e-01) (13, 4.16357398033142089844e-01) (14, -5.18377386033535003662e-02) (15, 8.00761654973030090332e-02) (16, 7.01512396335601806641e-01) (17, 7.08375811576843261719e-01) (18, 1.61176975816488265991e-02) (19, -2.43453934788703918457e-01) (20, -5.42170405387878417969e-01) (21, -1.34979409631341695786e-03) (22, -1.00481510162353515625e-03) (23, 7.02266991138458251953e-01) (24, 9.38931014388799667358e-04) (25, 6.23286366462707519531e-01) (26, 6.24771237373352050781e-01) (27, 6.59132480621337890625e-01) (2, 1.94821536540985107422e-01) (3, 3.39154988527297973633e-01) (4, -7.61095345020294189453e-01) (5, 2.16561987996101379395e-01) (6, 3.57324272394180297852e-01) (7, 5.01135945320129394531e-01) (8, 1.11495327949523925781e+00) (9, -4.39826518297195434570e-01) (10, 3.16447526216506958008e-01) (11, 1.07852387428283691406e+00) (12, -2.89429992437362670898e-01) (13, 2.27149426937103271484e-01) (14, 2.31516405940055847168e-01) (15, 2.85126388072967529297e-01) (16, -4.10793870687484741211e-01) (17, -3.62460821866989135742e-01) (18, 1.82170584797859191895e-01) (19, 8.44798684120178222656e-01) (20, 1.66040942072868347168e-01) (21, 3.24910193681716918945e-01) (22, 5.65932035446166992188e-01) (23, -3.75175833702087402344e-01) (24, 1.78676441311836242676e-01) (25, -3.50670367479324340820e-01) (26, -3.03863912820816040039e-01) (27, -5.31109452247619628906e-01) (2, -1.45757079124450683594e-01) (3, -3.62259149551391601562e-01) (4, -7.81413674354553222656e-01) (5, -2.59103327989578247070e-01) (6, -8.46877396106719970703e-02) (7, 9.49047982692718505859e-01) (8, 1.49603173136711120605e-01) (9, 2.91179329156875610352e-01) (10, -1.35919541120529174805e-01) (11, 6.76468387246131896973e-02) (12, 2.71538227796554565430e-01) (13, 5.89871585369110107422e-01) (14, -1.77479431033134460449e-01) (15, -1.52145013213157653809e-01) (16, 2.73483276367187500000e-01) (17, 1.45748913288116455078e-01) (18, -5.22610247135162353516e-02) (19, -2.36797817051410675049e-02) (20, 6.93836435675621032715e-02) (21, -2.24130854010581970215e-01) (22, 1.24323642253875732422e+00) (23, 2.67075091600418090820e-01) (24, -1.73079416155815124512e-01) (25, 2.45413571596145629883e-01) (26, 2.17621639370918273926e-01) (27, 1.78779318928718566895e-01) (2, 6.28278791904449462891e-01) (3, 3.53001594543457031250e-01) (4, -1.19043573737144470215e-01) (5, 4.18826103210449218750e-01) (6, 4.79139357805252075195e-01) (7, -9.97419953346252441406e-01) (8, 5.63711941242218017578e-01) (9, 2.66466289758682250977e-01) (10, 6.38189435005187988281e-01) (11, 2.24821940064430236816e-01) (12, 1.43152773380279541016e-01) (13, -3.18506546318531036377e-02) (14, 5.89454650878906250000e-01) (15, 5.72465956211090087891e-01) (16, 4.79817204177379608154e-02) (17, 2.12231099605560302734e-01) (18, 4.83413577079772949219e-01) (19, 1.47550208494067192078e-02) (20, 5.91965951025485992432e-03) (21, 4.97003525495529174805e-01) (22, 5.99622368812561035156e-01) (23, 8.66545811295509338379e-02) (24, 4.01855230331420898438e-01) (25, 6.12786188721656799316e-02) (26, 1.10997319221496582031e-01) (27, 2.22389042377471923828e-01) (2, 1.11192740499973297119e-01) (3, 9.36329811811447143555e-02) (4, -3.45608383417129516602e-01) (5, -8.68404880166053771973e-02) (6, -5.18973655998706817627e-02) (7, -4.21521186828613281250e+00) (8, -3.07934880256652832031e-01) (9, 7.36699283123016357422e-01) (10, 1.39459952712059020996e-01) (11, -1.78919866681098937988e-01) (12, 7.31642901897430419922e-01) (13, 3.24578315019607543945e-01) (14, 1.02622965350747108459e-02) (15, 1.77987711504101753235e-03) (16, 7.26035058498382568359e-01) (17, 5.73354721069335937500e-01) (18, 2.59449034929275512695e-02) (19, -2.77958095073699951172e-01) (20, -5.91714680194854736328e-01) (21, 1.37455845251679420471e-02) (22, 2.40399092435836791992e-02) (23, 6.92152321338653564453e-01) (24, 1.26165688037872314453e-01) (25, 6.68724536895751953125e-01) (26, 7.19598591327667236328e-01) (27, 6.10154151916503906250e-01) (2, -4.09468263387680053711e-02) (3, -1.42278358340263366699e-01) (4, -8.21687221527099609375e-01) (5, -2.51406580209732055664e-01) (6, -9.32199582457542419434e-02) (7, 8.95153880119323730469e-01) (8, 3.69802862405776977539e-02) (9, 3.12528878450393676758e-01) (10, -1.90774261951446533203e-01) (11, 4.20502312481403350830e-02) (12, 3.33240330219268798828e-01) (13, 7.96727061271667480469e-01) (14, -1.60549163818359375000e-01) (15, -8.82481187582015991211e-02) (16, 2.45880171656608581543e-01) (17, 1.84560135006904602051e-01) (18, -2.09509268403053283691e-01) (19, 6.75943493843078613281e-02) (20, -8.51317718625068664551e-02) (21, -4.05488014221191406250e-02) (22, 1.43229985237121582031e+00) (23, 3.11532855033874511719e-01) (24, -1.99950188398361206055e-02) (25, 1.98272064328193664551e-01) (26, 2.01264604926109313965e-01) (27, 1.65042206645011901855e-01) (2, 2.01899483799934387207e-02) (3, -3.51107358932495117188e-01) (4, -9.02881205081939697266e-01) (5, -2.42832511663436889648e-01) (6, -8.36355909705162048340e-02) (7, 8.08356523513793945312e-01) (8, 1.18740268051624298096e-01) (9, 2.78018087148666381836e-01) (10, -5.77466599643230438232e-02) (11, -6.67810393497347831726e-03) (12, 1.74413636326789855957e-01) (13, 6.91587984561920166016e-01) (14, -5.33645078539848327637e-02) (15, -2.06633478403091430664e-01) (16, 2.65229344367980957031e-01) (17, 3.29825073480606079102e-01) (18, -1.82436645030975341797e-01) (19, 1.33242197334766387939e-02) (20, -5.55918142199516296387e-02) (21, -1.20569936931133270264e-01) (22, -3.84831696748733520508e-01) (23, 2.93161004781723022461e-01) (24, -1.44503518939018249512e-01) (25, 2.46318802237510681152e-01) (26, 2.25723877549171447754e-01) (27, 1.97836786508560180664e-01) (2, -1.16039156913757324219e+00) (3, -6.18680179119110107422e-01) (4, -1.24034893512725830078e+00) (5, -5.98474442958831787109e-01) (6, -1.09994721412658691406e+00) (7, 3.00505781173706054688e+00) (8, 9.57494163513183593750e+00) (9, -1.19791913032531738281e+00) (10, -1.10825693607330322266e+00) (11, 9.50517654418945312500e+00) (12, -1.30102539062500000000e+00) (13, 2.24014759063720703125e+00) (14, -1.01189672946929931641e+00) (15, -1.03848803043365478516e+00) (16, -6.97658896446228027344e-01) (17, -5.50877332687377929688e-01) (18, -1.06275045871734619141e+00) (19, 3.46375226974487304688e+00) (20, 3.45732498168945312500e+00) (21, -1.11726498603820800781e+00) (22, -1.58798122406005859375e+00) (23, -6.47709488868713378906e-01) (24, -1.14473772048950195312e+00) (25, -6.24503612518310546875e-01) (26, -5.30289053916931152344e-01) (27, -6.85983240604400634766e-01) (2, 5.35852670669555664062e+00) (3, 3.16931629180908203125e+00) (4, 3.88491129875183105469e+00) (5, 3.13985490798950195312e+00) (6, 5.37706518173217773438e+00) (7, -3.97783112525939941406e+00) (8, -5.18177127838134765625e+00) (9, 3.67803740501403808594e+00) (10, 5.26196384429931640625e+00) (11, -5.10656547546386718750e+00) (12, 3.77539396286010742188e+00) (13, -3.15540409088134765625e+00) (14, 5.40535640716552734375e+00) (15, 5.24928426742553710938e+00) (16, 3.58701992034912109375e+00) (17, 3.67593145370483398438e+00) (18, 5.43255662918090820312e+00) (19, -1.81769728660583496094e+00) (20, -1.75476002693176269531e+00) (21, 5.40880966186523437500e+00) (22, 6.39809265136718750000e+02) (23, 3.72636079788208007812e+00) (24, 5.21967172622680664062e+00) (25, 3.67947649955749511719e+00) (26, 3.59165477752685546875e+00) (27, 2.19541716575622558594e+00) (2, 5.09325313568115234375e+00) (3, 3.07286429405212402344e+00) (4, 3.04113507270812988281e+00) (5, 3.16992044448852539062e+00) (6, 5.26808643341064453125e+00) (7, -4.09794569015502929688e+00) (8, -5.11010742187500000000e+00) (9, 3.75136446952819824219e+00) (10, 5.26952505111694335938e+00) (11, -5.14442873001098632812e+00) (12, 3.70972371101379394531e+00) (13, -3.50061678886413574219e+00) (14, 5.23587322235107421875e+00) (15, 5.36982536315917968750e+00) (16, 3.58290219306945800781e+00) (17, 3.61880064010620117188e+00) (18, 7.75947046279907226562e+00) (19, -1.76633179187774658203e+00) (20, -1.89314424991607666016e+00) (21, 5.34933280944824218750e+00) (22, 5.35404634475708007812e+00) (23, 3.62725424766540527344e+00) (24, 5.25894737243652343750e+00) (25, 3.63659906387329101562e+00) (26, 3.62858533859252929688e+00) (27, 2.19853687286376953125e+00) (2, -2.95539276123046875000e+02) (3, 2.25416159629821777344e+00) (4, 9.59809204101562500000e+02) (5, 2.30818080902099609375e+00) (6, 3.38323235511779785156e+00) (7, -1.88840603828430175781e+00) (8, -2.95904612541198730469e+00) (9, 3.32986235618591308594e+00) (10, 4.93892812728881835938e+00) (11, -2.88500070571899414062e+00) (12, 3.38949704170227050781e+00) (13, -2.05728206634521484375e+01) (14, 3.40674853324890136719e+00) (15, 5.25261783599853515625e+00) (16, 3.25025629997253417969e+00) (17, 3.61283421516418457031e+00) (18, 5.27885818481445312500e+00) (19, -1.83606314659118652344e+00) (20, -1.91022300720214843750e+00) (21, 5.28936910629272460938e+00) (22, 3.42955017089843750000e+00) (23, 3.36144018173217773438e+00) (24, 5.28191184997558593750e+00) (25, 3.77179551124572753906e+00) (26, 3.66671347618103027344e+00) (27, 2.24912261962890625000e+00) (2, 3.11976361274719238281e+00) (3, 3.95304512977600097656e+00) (4, 1.78962659835815429688e+00) (5, 2.18297243118286132812e+00) (6, -3.81529593467712402344e+00) (7, -1.67920422554016113281e+00) (8, -2.90017676353454589844e+00) (9, 2.87559890747070312500e+00) (10, 4.52537631988525390625e+00) (11, -2.86546802520751953125e+00) (12, 2.37693238258361816406e+00) (13, -2.58971047401428222656e+00) (14, 4.70508003234863281250e+00) (15, 3.97726106643676757812e+00) (16, 2.29426145553588867188e+00) (17, 1.98751997947692871094e+00) (18, -3.85000228881835937500e+00) (19, -3.38706612586975097656e+00) (20, -1.90882921218872070312e+00) (21, 2.51642614603042602539e-01) (22, 3.37172293663024902344e+00) (23, 2.75066781044006347656e+00) (24, 2.01008534431457519531e+00) (25, -3.76607012748718261719e+00) (26, 2.17555597424507141113e-01) (27, 1.16643428802490234375e+00) (2, 2.45314151048660278320e-01) (3, 1.97501197457313537598e-01) (4, -6.63614690303802490234e-01) (5, 1.24795377254486083984e-01) (6, 1.39251619577407836914e-01) (7, 4.90002006292343139648e-01) (8, 1.10952866077423095703e+00) (9, -4.29978281259536743164e-01) (10, 3.01964104175567626953e-01) (11, 1.02038621902465820312e+00) (12, -3.90407025814056396484e-01) (13, 2.45314478874206542969e-01) (14, 1.08256176114082336426e-01) (15, 2.68739461898803710938e-01) (16, -4.23014909029006958008e-01) (17, -3.75065088272094726562e-01) (18, 1.91093966364860534668e-01) (19, 9.24239993095397949219e-01) (20, 3.13553482294082641602e-01) (21, 2.31820896267890930176e-01) (22, -7.74471569061279296875e+00) (23, -3.96606743335723876953e-01) (24, 1.70093879103660583496e-01) (25, -4.97212588787078857422e-01) (26, -4.82542395591735839844e-01) (27, -5.85755825042724609375e-01) (2, 1.99855621904134750366e-02) (3, -3.20097625255584716797e-01) (4, -8.37475538253784179688e-01) (5, -1.83318570256233215332e-01) (6, -5.77507466077804565430e-02) (7, 7.90674507617950439453e-01) (8, 7.33296871185302734375e-02) (9, 2.44654253125190734863e-01) (10, -1.77292943000793457031e-01) (11, 9.13069620728492736816e-02) (12, 1.70930683612823486328e-01) (13, 6.60856783390045166016e-01) (14, -7.27188512682914733887e-02) (15, -2.34188005328178405762e-01) (16, 2.05205768346786499023e-01) (17, 2.31751963496208190918e-01) (18, -9.72746312618255615234e-02) (19, -1.83324553072452545166e-02) (20, -4.60478439927101135254e-02) (21, -5.40428236126899719238e-02) (22, -4.07460510730743408203e-01) (23, 2.73672342300415039062e-01) (24, -1.25454917550086975098e-01) (25, 3.27078521251678466797e-01) (26, 2.06857860088348388672e-01) (27, 1.72914206981658935547e-01) (2, 2.04148441553115844727e-01) (3, 2.22104221582412719727e-01) (4, -6.88946127891540527344e-01) (5, 4.12767380475997924805e-02) (6, 2.50080317258834838867e-01) (7, 3.94038975238800048828e-01) (8, 1.13384556770324707031e+00) (9, -3.83343100547790527344e-01) (10, 1.48641556501388549805e-01) (11, 1.12343239784240722656e+00) (12, -4.91323471069335937500e-01) (13, 2.61031091213226318359e-01) (14, 1.48411259055137634277e-01) (15, 2.04475879669189453125e-01) (16, -4.66558724641799926758e-01) (17, -4.47041422128677368164e-01) (18, 2.44025275111198425293e-01) (19, 7.95560121536254882812e-01) (20, 6.19811952114105224609e-01) (21, 2.63957738876342773438e-01) (22, -1.03800177574157714844e+00) (23, -5.02533972263336181641e-01) (24, 1.16683028638362884521e-01) (25, -3.70354056358337402344e-01) (26, -5.04482626914978027344e-01) (27, -5.39867639541625976562e-01) (2, -1.05922234058380126953e+00) (3, -4.74227041006088256836e-01) (4, -1.13008630275726318359e+00) (5, -4.85763460397720336914e-01) (6, -8.63097012042999267578e-01) (7, 1.96181368827819824219e+00) (8, 4.46749925613403320312e+00) (9, -5.10078728199005126953e-01) (10, -9.13345515727996826172e-01) (11, 9.78280544281005859375e+00) (12, -4.59135055541992187500e-01) (13, 2.16203498840332031250e+00) (14, -9.48933601379394531250e-01) (15, -8.85376214981079101562e-01) (16, -5.35180687904357910156e-01) (17, -4.54517304897308349609e-01) (18, -9.89518404006958007812e-01) (19, 3.65742850303649902344e+00) (20, 3.59532141685485839844e+00) (21, -9.07673358917236328125e-01) (22, -5.28473758697509765625e+00) (23, -4.47398185729980468750e-01) (24, -8.78648161888122558594e-01) (25, -5.43756127357482910156e-01) (26, -4.90010499954223632812e-01) (27, -5.09393334388732910156e-01) (2, 5.15976285934448242188e+00) (3, 3.18501710891723632812e+00) (4, 3.57019615173339843750e+00) (5, 3.14156961441040039062e+00) (6, 5.31721115112304687500e+00) (7, -1.97779202461242675781e+00) (8, -5.09203386306762695312e+00) (9, 3.64093685150146484375e+00) (10, 5.18417835235595703125e+00) (11, -5.09848499298095703125e+00) (12, 3.69312620162963867188e+00) (13, -3.28137087821960449219e+00) (14, 5.27913093566894531250e+00) (15, 5.30101203918457031250e+00) (16, 3.57860612869262695312e+00) (17, 3.54030203819274902344e+00) (18, 5.20421457290649414062e+00) (19, -1.80933284759521484375e+00) (20, -1.77381753921508789062e+00) (21, 5.25816869735717773438e+00) (22, 5.92218627929687500000e+02) (23, 3.22994041442871093750e+00) (24, 5.35425996780395507812e+00) (25, 3.69015812873840332031e+00) (26, 3.60624861717224121094e+00) (27, 2.12875914573669433594e+00) (2, 5.24548625946044921875e+00) (3, 3.09782528877258300781e+00) (4, 3.40653920173645019531e+00) (5, 3.23346161842346191406e+00) (6, 5.30989980697631835938e+00) (7, -2.04075169563293457031e+00) (8, -5.22540521621704101562e+00) (9, 3.71457839012145996094e+00) (10, 5.30369091033935546875e+00) (11, -2.85190176963806152344e+00) (12, 3.61067080497741699219e+00) (13, -3.16590809822082519531e+00) (14, 5.30209493637084960938e+00) (15, 5.25758886337280273438e+00) (16, 3.66404628753662109375e+00) (17, 3.61945986747741699219e+00) (18, 5.33840274810791015625e+00) (19, -1.79797017574310302734e+00) (20, -1.82137775421142578125e+00) (21, 5.33977270126342773438e+00) (22, 5.47679901123046875000e+00) (23, 3.71749234199523925781e+00) (24, 5.28226232528686523438e+00) (25, 3.72046971321105957031e+00) (26, 3.77156138420104980469e+00) (27, 2.10613989830017089844e+00) (2, -7.10187777876853942871e-02) (3, 9.24187377095222473145e-02) (4, -2.96240985393524169922e-01) (5, 1.92579552531242370605e-01) (6, 6.70732883736491203308e-03) (7, 9.80645298957824707031e-01) (8, 1.88144779205322265625e+00) (9, -9.67293083667755126953e-01) (10, 3.73953245580196380615e-02) (11, 1.62904810905456542969e+00) (12, -9.17656600475311279297e-01) (13, 5.65092802047729492188e-01) (14, 5.89827969670295715332e-02) (15, 7.99083337187767028809e-02) (16, -8.12579810619354248047e-01) (17, -8.49964916706085205078e-01) (18, -3.40386740863323211670e-02) (19, 1.30920362472534179688e+00) (20, 1.45819234848022460938e+00) (21, 4.91120703518390655518e-02) (22, 7.53863453865051269531e-02) (23, -9.06186759471893310547e-01) (24, 5.65361790359020233154e-03) (25, -9.82251584529876708984e-01) (26, -9.73919868469238281250e-01) (27, -9.70508038997650146484e-01) (2, 5.52910923957824707031e-01) (3, 4.44226026535034179688e-01) (4, -1.16335548460483551025e-01) (5, 4.87455427646636962891e-01) (6, 5.12984156608581542969e-01) (7, 4.74619716405868530273e-01) (8, 2.70128697156906127930e-01) (9, 1.90979734063148498535e-01) (10, 5.77725470066070556641e-01) (11, 2.65115976333618164062e-01) (12, 6.06459528207778930664e-02) (13, 4.23920713365077972412e-03) (14, 6.82871699333190917969e-01) (15, 6.71232402324676513672e-01) (16, 1.06052592396736145020e-01) (17, 2.02096134424209594727e-01) (18, 5.94314277172088623047e-01) (19, 1.13826066255569458008e-01) (20, -5.88298141956329345703e-02) (21, 5.05352914333343505859e-01) (22, 6.42724990844726562500e-01) (23, 1.45888790488243103027e-01) (24, 5.37771761417388916016e-01) (25, 1.33063539862632751465e-01) (26, 4.76785190403461456299e-02) (27, 2.46549278497695922852e-01) (2, -5.54727762937545776367e-02) (3, -2.50250309705734252930e-01) (4, -6.89830780029296875000e-01) (5, -3.27438324689865112305e-01) (6, -1.74210190773010253906e-01) (7, 8.36839854717254638672e-01) (8, 5.74855208396911621094e-02) (9, 1.52848690748214721680e-01) (10, -2.02953651547431945801e-01) (11, 1.02516494691371917725e-01) (12, 1.36420071125030517578e-01) (13, 6.79826200008392333984e-01) (14, -1.49712190032005310059e-01) (15, -1.29428505897521972656e-01) (16, 1.00736878812313079834e-01) (17, 2.00926870107650756836e-01) (18, 1.71637646853923797607e-02) (19, -7.98510678578168153763e-04) (20, -1.44985824823379516602e-01) (21, -1.24418646097183227539e-01) (22, 5.86886703968048095703e-02) (23, 2.20898509025573730469e-01) (24, -1.24914534389972686768e-01) (25, 2.15801894664764404297e-01) (26, 2.56058156490325927734e-01) (27, 1.76690131425857543945e-01) (28, -3.13814841210842132568e-02) (29, -4.94396649301052093506e-02) (30, -7.99729973077774047852e-02) (31, 6.13472580909729003906e-01) (32, 8.86847376823425292969e-02) (33, 1.03906810283660888672e+00) (34, 7.27495431900024414062e-01) (35, 1.48872494697570800781e-01) (36, 7.62279704213142395020e-02) (37, 5.85521459579467773438e-01) (38, 7.23558664321899414062e-01) (39, 7.92796254158020019531e-01) (40, -1.38945564627647399902e-01) (41, -2.15812325477600097656e-01) (42, -1.38927787542343139648e-01) (43, -9.38715711236000061035e-02) (44, 9.22758221626281738281e-01) (45, 5.94176530838012695312e-01) (46, 1.53008115291595458984e+00) (47, 7.67876505851745605469e-01) (48, -4.51569631695747375488e-02) (49, -2.10457041859626770020e-01) (50, 6.16363346576690673828e-01) (51, 5.65527305006980895996e-02) (52, 7.44139313697814941406e-01) (53, 1.14819973707199096680e-01) (28, -1.45243048667907714844e-01) (29, 4.00695204734802246094e-02) (30, -2.42583394050598144531e-01) (31, -2.31132459640502929688e+00) (32, -1.34188488125801086426e-01) (33, 8.54005527496337890625e+00) (34, 7.08352029323577880859e-01) (35, 1.18292763829231262207e-01) (36, -7.83502385020256042480e-02) (37, 3.07689499855041503906e+00) (38, 6.65348470211029052734e-01) (39, 1.31952106952667236328e+00) (40, -2.60141491889953613281e-01) (41, -2.38702714443206787109e-01) (42, -2.29675459861755371094e+00) (43, -2.62627393007278442383e-01) (44, 1.80993690490722656250e+01) (45, 6.54803633689880371094e-01) (46, 2.61956863403320312500e+01) (47, 8.32335889339447021484e-01) (48, -2.73290067911148071289e-01) (49, -1.64811521768569946289e-01) (50, 8.26642096042633056641e-01) (51, -2.22050026059150695801e-03) (52, 7.76749420166015625000e+01) (53, 9.85982362180948257446e-03) (28, -1.69533282518386840820e-01) (29, 1.06057850643992424011e-02) (30, -3.26978079974651336670e-02) (31, 6.71411156654357910156e-01) (32, 9.71847306936979293823e-03) (33, 9.83058869838714599609e-01) (34, 7.70393967628479003906e-01) (35, 1.81034490466117858887e-01) (36, -1.09382197260856628418e-02) (37, 7.84825623035430908203e-01) (38, 8.18587541580200195312e-01) (39, 7.59058654308319091797e-01) (40, -9.17525216937065124512e-02) (41, -1.52216285467147827148e-01) (42, 2.28772824630141258240e-03) (43, -1.85684233903884887695e-01) (44, 9.40938472747802734375e-01) (45, 8.08871448040008544922e-01) (46, 1.69271564483642578125e+00) (47, 7.43770301342010498047e-01) (48, -2.00345203280448913574e-01) (49, -2.05600053071975708008e-01) (50, 7.32926368713378906250e-01) (51, 1.05532877147197723389e-01) (52, 7.85955250263214111328e-01) (53, 1.14481709897518157959e-01) (28, -2.22685083746910095215e-01) (29, 5.19430451095104217529e-02) (30, -1.87546834349632263184e-01) (31, 5.45994579792022705078e-01) (32, 2.16447431594133377075e-02) (33, 1.94680070877075195312e+00) (34, 7.40971982479095458984e-01) (35, 1.11184567213058471680e-01) (36, -2.55312249064445495605e-02) (37, 5.79906582832336425781e-01) (38, 5.68168163299560546875e-01) (39, 7.32604265213012695312e-01) (40, -6.27912580966949462891e-02) (41, -1.18416294455528259277e-01) (42, 2.93091200292110443115e-02) (43, -6.61069229245185852051e-02) (44, 9.41618561744689941406e-01) (45, 6.36726558208465576172e-01) (46, 1.35504806041717529297e+00) (47, 7.48436927795410156250e-01) (48, -7.86961242556571960449e-02) (49, -1.30005002021789550781e-01) (50, 6.31180584430694580078e-01) (51, 6.70323744416236877441e-02) (52, 8.10877740383148193359e-01) (53, 2.72209057584404945374e-03) (28, -1.60596236586570739746e-01) (29, 6.04273900389671325684e-02) (30, -6.96139410138130187988e-02) (31, 5.63506603240966796875e-01) (32, 5.93793615698814392090e-02) (33, 9.63957011699676513672e-01) (34, 7.53879666328430175781e-01) (35, 2.16945022344589233398e-01) (36, -7.77103975415229797363e-02) (37, 6.06287419795989990234e-01) (38, 6.06364130973815917969e-01) (39, 8.04253458976745605469e-01) (40, -8.92991945147514343262e-02) (41, -9.41890627145767211914e-02) (42, -2.81730871647596359253e-02) (43, -4.74986769258975982666e-02) (44, 8.45008313655853271484e-01) (45, 6.47691845893859863281e-01) (46, 1.11624526977539062500e+00) (47, 7.86326110363006591797e-01) (48, -1.46208152174949645996e-01) (49, -2.05982640385627746582e-01) (50, 5.93236684799194335938e-01) (51, 1.50349214673042297363e-01) (52, 7.41420269012451171875e-01) (53, 9.01708379387855529785e-02) (28, 4.12765108048915863037e-02) (29, -3.40618342161178588867e-02) (30, 5.49912229180335998535e-02) (31, -5.69607782363891601562e+00) (32, -1.43497124314308166504e-01) (33, 2.14794620871543884277e-01) (34, 8.44144999980926513672e-01) (35, 3.18266540765762329102e-01) (36, -9.18402522802352905273e-02) (37, 3.90640377998352050781e+00) (38, 5.93223273754119873047e-01) (39, -6.34906068444252014160e-02) (40, 8.93396809697151184082e-02) (41, 2.17339828610420227051e-01) (42, 1.34867206215858459473e-01) (43, 1.71163395047187805176e-01) (44, 2.54216611385345458984e-01) (45, 4.51192200183868408203e-01) (46, 5.23245871067047119141e-01) (47, -2.90392506867647171021e-02) (48, 5.01116104423999786377e-02) (49, 4.94713671505451202393e-02) (50, 3.08675765991210937500e-01) (51, 4.16164726018905639648e-01) (52, -6.22408449649810791016e-01) (53, -1.10993079841136932373e-01) (28, 1.21642954647541046143e-01) (29, -2.79218386858701705933e-02) (30, -8.96549597382545471191e-03) (31, 1.66370105743408203125e+00) (32, -4.78886142373085021973e-02) (33, 1.15967534482479095459e-01) (34, 1.85492128133773803711e-01) (35, 4.32700812816619873047e-02) (36, -1.84969887137413024902e-01) (37, -1.69116508960723876953e+00) (38, 2.63670504093170166016e-01) (39, 4.87734466791152954102e-01) (40, 7.37107768654823303223e-02) (41, 1.76774933934211730957e-01) (42, 4.65734712779521942139e-02) (43, 6.08540028333663940430e-02) (44, 1.86049312353134155273e-01) (45, 2.77199774980545043945e-01) (46, 9.63033214211463928223e-02) (47, 5.54133117198944091797e-01) (48, 2.63514649122953414917e-02) (49, -1.58461518585681915283e-02) (50, 5.10989069938659667969e-01) (51, -1.22962975874543190002e-02) (52, -8.36633861064910888672e-01) (53, -2.74656623601913452148e-01) (28, 3.23124974966049194336e-01) (29, 7.79739499092102050781e-01) (30, 3.11688303947448730469e-01) (31, -1.08389294147491455078e+00) (32, 8.72381389141082763672e-01) (33, 5.94539165496826171875e-01) (34, -1.59794762730598449707e-01) (35, 4.77653622627258300781e-01) (36, 7.80458331108093261719e-01) (37, -8.78183841705322265625e-01) (38, 2.92948782444000244141e-02) (39, 5.67818358540534973145e-02) (40, 1.87016576528549194336e-01) (41, 2.22648948431015014648e-01) (42, 1.26190289855003356934e-01) (43, 2.73156523704528808594e-01) (44, 5.19221961498260498047e-01) (45, 1.13082580268383026123e-01) (46, 5.94154894351959228516e-01) (47, -4.37138527631759643555e-02) (48, 1.67778804898262023926e-01) (49, 3.25715184211730957031e-01) (50, 3.01370799541473388672e-01) (51, 5.46817541122436523438e-01) (52, -2.43888187408447265625e+00) (53, 7.29103326797485351562e-01) (28, -1.45642921328544616699e-01) (29, 3.10686174780130386353e-02) (30, -1.00144095718860626221e-01) (31, 7.33441710472106933594e-01) (32, 5.61063885688781738281e-02) (33, 1.06801819801330566406e+00) (34, 6.87805771827697753906e-01) (35, 1.17694392800331115723e-01) (36, 1.03199072182178497314e-01) (37, 6.31822824478149414062e-01) (38, 6.95579230785369873047e-01) (39, 7.96619415283203125000e-01) (40, -1.51027426123619079590e-01) (41, -1.21835701167583465576e-01) (42, -5.14855198562145233154e-02) (43, -1.15563377737998962402e-01) (44, 8.78775238990783691406e-01) (45, 6.37165725231170654297e-01) (46, 1.55335557460784912109e+00) (47, 7.46635079383850097656e-01) (48, -2.06883355975151062012e-01) (49, -4.92731556296348571777e-02) (50, 7.57558584213256835938e-01) (51, 1.58336654305458068848e-01) (52, 6.62066936492919921875e-01) (53, 1.09866894781589508057e-01) (28, 3.79518657922744750977e-01) (29, 3.69628518819808959961e-01) (30, 3.68720680475234985352e-01) (31, -3.97426187992095947266e-01) (32, 3.66987437009811401367e-01) (33, 7.91291445493698120117e-02) (34, 1.16421014070510864258e-01) (35, 2.49525532126426696777e-01) (36, 3.23705285787582397461e-01) (37, 2.59611785411834716797e-01) (38, 3.82528126239776611328e-01) (39, -1.00369304418563842773e-01) (40, 4.31752651929855346680e-01) (41, 4.58432227373123168945e-01) (42, 8.77700224518775939941e-02) (43, 4.03070896863937377930e-01) (44, -1.19752600789070129395e-01) (45, 3.80249947309494018555e-01) (46, 1.73663515597581863403e-02) (47, 1.07406843453645706177e-02) (48, 3.54126185178756713867e-01) (49, 3.61415594816207885742e-01) (50, 2.52161864191293716431e-02) (51, 1.77375003695487976074e-01) (52, -5.24126768112182617188e-01) (53, 2.21617192029953002930e-01) (28, 1.36761665344238281250e-01) (29, 7.84242272377014160156e-01) (30, 3.09561848640441894531e-01) (31, -4.29647779464721679688e+00) (32, 7.80880928039550781250e-01) (33, 5.65396666526794433594e-01) (34, -5.51322810351848602295e-02) (35, 5.42648971080780029297e-01) (36, 6.99861526489257812500e-01) (37, -5.71755245327949523926e-02) (38, 1.52632817625999450684e-01) (39, 1.04312926530838012695e-01) (40, 1.98811993002891540527e-01) (41, 2.19260200858116149902e-01) (42, 1.54541358351707458496e-01) (43, 1.79241135716438293457e-01) (44, 5.93682348728179931641e-01) (45, 1.74950227141380310059e-01) (46, 5.21901905536651611328e-01) (47, 9.50798243284225463867e-02) (48, 1.91778987646102905273e-01) (49, 1.60225853323936462402e-01) (50, 2.84033775329589843750e-01) (51, 6.04646503925323486328e-01) (52, -1.10706019401550292969e+00) (53, 6.59276723861694335938e-01) (28, -9.50598046183586120605e-02) (29, 8.57698842883110046387e-02) (30, -4.48815301060676574707e-02) (31, 6.24078989028930664062e-01) (32, -6.47765919566154479980e-02) (33, 1.45941293239593505859e+00) (34, 6.19137525558471679688e-01) (35, 2.09264263510704040527e-01) (36, -7.40052908658981323242e-02) (37, 7.02342629432678222656e-01) (38, 5.78266501426696777344e-01) (39, 6.62123799324035644531e-01) (40, -7.86356031894683837891e-02) (41, -1.23494185507297515869e-01) (42, 2.85847689956426620483e-02) (43, -1.21382601559162139893e-01) (44, 8.50310742855072021484e-01) (45, 5.64356982707977294922e-01) (46, 1.21047544479370117188e+00) (47, 7.99167156219482421875e-01) (48, -1.49611636996269226074e-01) (49, -1.53678223490715026855e-01) (50, 5.94685256481170654297e-01) (51, 9.51438546180725097656e-02) (52, 6.66287183761596679688e-01) (53, 2.03844578936696052551e-03) (28, -1.21318735182285308838e-01) (29, 4.79604639112949371338e-02) (30, -6.98510929942131042480e-02) (31, 6.08849525451660156250e-01) (32, 7.11115822196006774902e-03) (33, 8.82206261157989501953e-01) (34, 6.36497437953948974609e-01) (35, 8.58274400234222412109e-02) (36, 8.10452178120613098145e-02) (37, 6.03209316730499267578e-01) (38, 6.76204741001129150391e-01) (39, 9.05624389648437500000e-01) (40, -1.97742208838462829590e-01) (41, -1.67737126350402832031e-01) (42, -3.34385037422180175781e-02) (43, -1.48283660411834716797e-01) (44, 9.46200370788574218750e-01) (45, 6.84771001338958740234e-01) (46, 1.79505658149719238281e+00) (47, 7.03351795673370361328e-01) (48, -6.15557096898555755615e-02) (49, -1.78650319576263427734e-01) (50, 6.31234884262084960938e-01) (51, 1.69647291302680969238e-01) (52, 7.75665879249572753906e-01) (53, 6.35367631912231445312e-02) (28, 1.90172791481018066406e-01) (29, 8.37481498718261718750e-01) (30, 1.92936047911643981934e-01) (31, -1.14804029464721679688e+00) (32, 7.26224541664123535156e-01) (33, 6.35993599891662597656e-01) (34, -9.50703769922256469727e-03) (35, 5.38996100425720214844e-01) (36, 8.49161028861999511719e-01) (37, 5.08975125849246978760e-02) (38, 8.01397264003753662109e-02) (39, 9.41104516386985778809e-02) (40, 2.98107355833053588867e-01) (41, 2.12273225188255310059e-01) (42, 1.42775014042854309082e-01) (43, 3.49427640438079833984e-01) (44, 5.20722866058349609375e-01) (45, 4.00527454912662506104e-02) (46, 5.26625394821166992188e-01) (47, 3.17641310393810272217e-02) (48, 2.88693040609359741211e-01) (49, 2.65988469123840332031e-01) (50, 3.35048317909240722656e-01) (51, 6.37681007385253906250e-01) (52, -3.18188905715942382812e+00) (53, 6.76661372184753417969e-01) (28, 1.95222005248069763184e-01) (29, -1.83236956596374511719e-01) (30, 1.44197270274162292480e-01) (31, 2.11485457420349121094e+00) (32, -3.58431637287139892578e-02) (33, 3.58242601156234741211e-01) (34, 4.85889643430709838867e-01) (35, 4.91391450166702270508e-01) (36, -8.08225721120834350586e-02) (37, 8.19470882415771484375e-01) (38, 5.99919676780700683594e-01) (39, 7.69701451063156127930e-02) (40, 1.31746515631675720215e-01) (41, 1.29128769040107727051e-01) (42, 4.07923720777034759521e-02) (43, 2.19110921025276184082e-01) (44, 3.29399973154067993164e-01) (45, 6.38131439685821533203e-01) (46, 4.13361996412277221680e-01) (47, 1.65988188236951828003e-02) (48, 1.72336384654045104980e-01) (49, 7.75951296091079711914e-02) (50, 3.25658410787582397461e-01) (51, 4.73066627979278564453e-01) (52, 4.25894584655761718750e+01) (53, -1.25922977924346923828e-01) (28, 8.14232602715492248535e-02) (29, -1.30687698721885681152e-01) (30, 1.75590544939041137695e-01) (31, 1.40773248672485351562e+00) (32, -8.83247852325439453125e-02) (33, 5.76031386852264404297e-01) (34, 3.66856634616851806641e-01) (35, 2.87610348314046859741e-02) (36, -9.12211313843727111816e-02) (37, 5.06075143814086914062e-01) (38, 2.69070446491241455078e-01) (39, 4.25630003213882446289e-01) (40, 1.51693820953369140625e-01) (41, 8.24765861034393310547e-02) (42, 1.39016225934028625488e-01) (43, 5.97282201051712036133e-02) (44, -2.45410174131393432617e-01) (45, 3.49030166864395141602e-01) (46, 3.48036378622055053711e-01) (47, 4.38243865966796875000e-01) (48, 1.62665143609046936035e-01) (49, 2.05432817339897155762e-01) (50, 4.39713478088378906250e-01) (51, 1.11715169623494148254e-02) (52, -1.13158502578735351562e+01) (53, -1.57806098461151123047e-01) (28, 1.32270961999893188477e-01) (29, 2.58764892816543579102e-01) (30, -6.50776922702789306641e-03) (31, 1.64748919010162353516e+00) (32, 1.12092673778533935547e-01) (33, 6.95945382118225097656e-01) (34, -1.13079185485839843750e+01) (35, -1.50141954421997070312e-01) (36, 1.58058971166610717773e-01) (37, 5.76839864253997802734e-01) (38, 5.73478162288665771484e-01) (39, 1.31331741809844970703e-01) (40, 6.88031390309333801270e-02) (41, 2.72355638444423675537e-02) (42, -1.36512443423271179199e-01) (43, -1.09147103503346443176e-02) (44, 5.12627959251403808594e-01) (45, 6.43689393997192382812e-01) (46, 3.23438346385955810547e-01) (47, 2.03404262661933898926e-01) (48, -3.71392592787742614746e-02) (49, 2.84348167479038238525e-02) (50, 2.34969064593315124512e-01) (51, -2.41026617586612701416e-02) (52, 4.47038307189941406250e+01) (53, 5.19276112318038940430e-02) (28, -1.80410787463188171387e-01) (29, -8.82798135280609130859e-02) (30, -2.54622370004653930664e-01) (31, 7.44345128536224365234e-01) (32, -2.71806027740240097046e-03) (33, 1.60409045219421386719e+00) (34, 7.93342709541320800781e-01) (35, 1.60259738564491271973e-01) (36, 1.24111110344529151917e-02) (37, 5.98304688930511474609e-01) (38, 6.18390202522277832031e-01) (39, 7.53541111946105957031e-01) (40, -2.52664744853973388672e-01) (41, -9.86072123050689697266e-02) (42, -7.05109685659408569336e-02) (43, -1.47110298275947570801e-01) (44, 7.37965941429138183594e-01) (45, 6.21096134185791015625e-01) (46, 1.20602026581764221191e-01) (47, 8.59610855579376220703e-01) (48, -1.81558474898338317871e-01) (49, -1.80618003010749816895e-01) (50, 7.51503884792327880859e-01) (51, 1.53697535395622253418e-01) (52, 7.32153356075286865234e-01) (53, -1.94741934537887573242e-02) (28, 2.07118719816207885742e-01) (29, 6.83809459209442138672e-01) (30, 2.07533240318298339844e-01) (31, -4.78873920440673828125e+00) (32, 7.69932746887207031250e-01) (33, 6.92068994045257568359e-01) (34, -3.50067764520645141602e-01) (35, 6.99183642864227294922e-01) (36, 8.17224919795989990234e-01) (37, -8.33065450191497802734e-01) (38, 2.34601959586143493652e-01) (39, 9.22595113515853881836e-02) (40, 3.11476349830627441406e-01) (41, 2.89560467004776000977e-01) (42, 3.39363634586334228516e-01) (43, 2.12952658534049987793e-01) (44, 6.94448888301849365234e-01) (45, 8.12334567308425903320e-02) (46, 5.91026008129119873047e-01) (47, 1.24199107289314270020e-01) (48, 3.22081267833709716797e-01) (49, 3.02739918231964111328e-01) (50, 2.48307466506958007812e-01) (51, 5.50010263919830322266e-01) (52, -3.90783500671386718750e+00) (53, 6.86848998069763183594e-01) (28, 2.64868438243865966797e-01) (29, 6.75718605518341064453e-01) (30, 3.05562257766723632812e-01) (31, -3.38901662826538085938e+00) (32, 8.12485039234161376953e-01) (33, 5.46449959278106689453e-01) (34, -1.26637116074562072754e-01) (35, 5.05126237869262695312e-01) (36, 6.52465641498565673828e-01) (37, -8.64443063735961914062e-01) (38, 1.29856811836361885071e-02) (39, -2.38736737519502639771e-02) (40, 2.71943897008895874023e-01) (41, 3.23285579681396484375e-01) (42, 1.53921350836753845215e-01) (43, 2.62206971645355224609e-01) (44, 6.48217320442199707031e-01) (45, 2.12018191814422607422e-01) (46, 5.63535809516906738281e-01) (47, 6.82475045323371887207e-02) (48, 1.96183532476425170898e-01) (49, 1.94197922945022583008e-01) (50, 3.46055239439010620117e-01) (51, 6.66038453578948974609e-01) (52, -3.41036510467529296875e+00) (53, 6.49067223072052001953e-01) (28, -1.32564112544059753418e-01) (29, 1.08839469030499458313e-02) (30, -6.59119263291358947754e-02) (31, 7.65200555324554443359e-01) (32, -7.20035564154386520386e-03) (33, 9.35761392116546630859e-01) (34, 7.16048598289489746094e-01) (35, 5.93378320336341857910e-02) (36, 2.55775637924671173096e-02) (37, 7.63658821582794189453e-01) (38, 7.03959643840789794922e-01) (39, 8.96794021129608154297e-01) (40, -2.00099974870681762695e-01) (41, -1.43991619348526000977e-01) (42, -1.50595447048544883728e-02) (43, -1.82099685072898864746e-01) (44, 1.01056659221649169922e+00) (45, 6.92777037620544433594e-01) (46, 1.66536986827850341797e+00) (47, 8.01354289054870605469e-01) (48, -3.74281033873558044434e-02) (49, -5.73011264204978942871e-02) (50, 6.80171728134155273438e-01) (51, 8.16859081387519836426e-02) (52, 7.48084843158721923828e-01) (53, 9.41596999764442443848e-02) (28, 9.74146202206611633301e-02) (29, -1.41220524907112121582e-01) (30, 8.61009135842323303223e-02) (31, 8.95100295543670654297e-01) (32, -1.94882303476333618164e-01) (33, 1.47915288805961608887e-01) (34, 1.99575573205947875977e-01) (35, 2.38893628120422363281e-02) (36, -1.02030746638774871826e-01) (37, -4.44772720336914062500e-01) (38, 2.29696616530418395996e-01) (39, 3.56724500656127929688e-01) (40, 1.15071542561054229736e-01) (41, 1.35122269392013549805e-01) (42, -9.40647721290588378906e-03) (43, 5.88802807033061981201e-02) (44, 1.25627115368843078613e-01) (45, 2.17557340860366821289e-01) (46, 2.64579933136701583862e-02) (47, 4.70777481794357299805e-01) (48, 6.17929361760616302490e-02) (49, -1.25142177566885948181e-02) (50, 4.20278787612915039062e-01) (51, -3.10686230659484863281e-02) (52, -1.08491075038909912109e+00) (53, -2.06204757094383239746e-01) (28, -1.47288411855697631836e-01) (29, -1.80634371936321258545e-02) (30, -7.11249634623527526855e-02) (31, 6.90485000610351562500e-01) (32, -3.97379472851753234863e-02) (33, 9.14829909801483154297e-01) (34, 6.57513856887817382812e-01) (35, 1.64248943328857421875e-01) (36, -6.62416368722915649414e-02) (37, 6.11473679542541503906e-01) (38, 7.70210623741149902344e-01) (39, 7.76934623718261718750e-01) (40, -2.19343125820159912109e-01) (41, -8.57899114489555358887e-02) (42, -9.54050850123167037964e-03) (43, -1.67372509837150573730e-01) (44, 1.05458080768585205078e+00) (45, 6.98794126510620117188e-01) (46, 1.62945032119750976562e+00) (47, 8.47965300083160400391e-01) (48, -1.43689423799514770508e-01) (49, -1.00710719823837280273e-01) (50, 5.79140663146972656250e-01) (51, 1.92993655800819396973e-01) (52, 8.16036641597747802734e-01) (53, 1.71220507472753524780e-02) (28, 3.21323513984680175781e-01) (29, 7.51969695091247558594e-01) (30, 1.52930274605751037598e-01) (31, -1.05186772346496582031e+00) (32, 8.44786584377288818359e-01) (33, 5.95825493335723876953e-01) (34, -1.74095809459686279297e-01) (35, 6.56746327877044677734e-01) (36, 7.13779211044311523438e-01) (37, -9.80358719825744628906e-01) (38, 1.86711519956588745117e-01) (39, 1.94309465587139129639e-03) (40, 2.99200147390365600586e-01) (41, 3.40297043323516845703e-01) (42, 9.62226539850234985352e-02) (43, 2.40962162613868713379e-01) (44, 5.43183147907257080078e-01) (45, 1.40723347663879394531e-01) (46, 5.25652348995208740234e-01) (47, 7.66916722059249877930e-02) (48, 3.39952349662780761719e-01) (49, 1.42525106668472290039e-01) (50, 2.21232563257217407227e-01) (51, 5.49627542495727539062e-01) (52, -3.38078880310058593750e+00) (53, 6.31117582321166992188e-01) (28, 2.73759782314300537109e-01) (29, 1.16791971027851104736e-01) (30, 2.34375283122062683105e-01) (31, -4.92105293273925781250e+00) (32, 2.09353283047676086426e-01) (33, 4.92741256952285766602e-01) (34, 4.44354896545410156250e+01) (35, 7.14565157890319824219e-01) (36, 1.07659250497817993164e-01) (37, 8.74113559722900390625e+00) (38, 6.18214492797851562500e+01) (39, 2.53209710121154785156e-01) (40, 1.90862402319908142090e-01) (41, 2.02007070183753967285e-01) (42, 2.69245743751525878906e-01) (43, 1.75014957785606384277e-01) (44, 7.92193651199340820312e-01) (45, -1.47780113220214843750e+01) (46, 6.79865598678588867188e-01) (47, 1.84046864509582519531e-01) (48, 1.81330606341361999512e-01) (49, 2.14213624596595764160e-01) (50, 5.20476341247558593750e-01) (51, 7.07983791828155517578e-01) (52, -1.19193477630615234375e+01) (53, -5.31707853078842163086e-02) (54, 6.17470324039459228516e-01) (55, 6.25133395195007324219e-01) (56, 5.83045959472656250000e-01) (57, 3.14808011054992675781e-01) (58, 5.48418521881103515625e-01) (59, 9.56354290246963500977e-02) (60, -2.04835072159767150879e-01) (61, 7.18646883964538574219e-01) (62, 6.15893721580505371094e-01) (63, 1.38894528150558471680e-01) (64, 7.92835354804992675781e-01) (65, 3.03166210651397705078e-01) (66, 3.25174778699874877930e-01) (67, 7.86010146141052246094e-01) (68, 2.45319142937660217285e-01) (69, -1.96255907416343688965e-01) (70, 3.00291270017623901367e-01) (71, 2.89011031389236450195e-01) (72, 7.45753288269042968750e-01) (73, 7.41796910762786865234e-01) (74, 6.10531747341156005859e-01) (75, -1.73359975218772888184e-01) (76, 3.26057106256484985352e-01) (77, 7.24154233932495117188e-01) (78, -1.21066300198435783386e-03) (79, 7.25584387779235839844e-01) 
